digraph Tree {
node [shape=box, style="filled", color="black", fontname="helvetica"] ;
edge [fontname="helvetica"] ;
0 [label="elevation <= 33.5\ngini = 0.497\nsamples = 369\nvalue = [170, 199]\nclass = New York", fillcolor="#e2f1fb"] ;
1 [label="price_per_sqft <= 1072.5\ngini = 0.422\nsamples = 238\nvalue = [166, 72]\nclass = San Francisco", fillcolor="#f0b88f"] ;
0 -> 1 [labeldistance=2.5, labelangle=45, headlabel="True"] ;
2 [label="year_built <= 1970.0\ngini = 0.487\nsamples = 93\nvalue = [39, 54]\nclass = New York", fillcolor="#c8e4f8"] ;
1 -> 2 ;
3 [label="sqft <= 1113.5\ngini = 0.44\nsamples = 55\nvalue = [37, 18]\nclass = San Francisco", fillcolor="#f2be99"] ;
2 -> 3 ;
4 [label="gini = 0.175\nsamples = 31\nvalue = [28, 3]\nclass = San Francisco", fillcolor="#e88e4e"] ;
3 -> 4 ;
5 [label="gini = 0.469\nsamples = 24\nvalue = [9, 15]\nclass = New York", fillcolor="#b0d8f5"] ;
3 -> 5 ;
6 [label="elevation <= 0.5\ngini = 0.1\nsamples = 38\nvalue = [2, 36]\nclass = New York", fillcolor="#44a2e6"] ;
2 -> 6 ;
7 [label="gini = 0.0\nsamples = 1\nvalue = [1, 0]\nclass = San Francisco", fillcolor="#e58139"] ;
6 -> 7 ;
8 [label="gini = 0.053\nsamples = 37\nvalue = [1, 36]\nclass = New York", fillcolor="#3ea0e6"] ;
6 -> 8 ;
9 [label="elevation <= 4.5\ngini = 0.217\nsamples = 145\nvalue = [127, 18]\nclass = San Francisco", fillcolor="#e99355"] ;
1 -> 9 ;
10 [label="price <= 2174500.0\ngini = 0.472\nsamples = 21\nvalue = [13, 8]\nclass = San Francisco", fillcolor="#f5cfb3"] ;
9 -> 10 ;
11 [label="gini = 0.48\nsamples = 10\nvalue = [4, 6]\nclass = New York", fillcolor="#bddef6"] ;
10 -> 11 ;
12 [label="gini = 0.298\nsamples = 11\nvalue = [9, 2]\nclass = San Francisco", fillcolor="#eb9d65"] ;
10 -> 12 ;
13 [label="price_per_sqft <= 1379.5\ngini = 0.148\nsamples = 124\nvalue = [114, 10]\nclass = San Francisco", fillcolor="#e78c4a"] ;
9 -> 13 ;
14 [label="gini = 0.331\nsamples = 43\nvalue = [34, 9]\nclass = San Francisco", fillcolor="#eca26d"] ;
13 -> 14 ;
15 [label="gini = 0.024\nsamples = 81\nvalue = [80, 1]\nclass = San Francisco", fillcolor="#e5833b"] ;
13 -> 15 ;
16 [label="price <= 579450.0\ngini = 0.059\nsamples = 131\nvalue = [4, 127]\nclass = New York", fillcolor="#3fa0e6"] ;
0 -> 16 [labeldistance=2.5, labelangle=-45, headlabel="False"] ;
17 [label="year_built <= 1920.0\ngini = 0.444\nsamples = 9\nvalue = [3, 6]\nclass = New York", fillcolor="#9ccef2"] ;
16 -> 17 ;
18 [label="gini = 0.0\nsamples = 5\nvalue = [0, 5]\nclass = New York", fillcolor="#399de5"] ;
17 -> 18 ;
19 [label="elevation <= 76.5\ngini = 0.375\nsamples = 4\nvalue = [3, 1]\nclass = San Francisco", fillcolor="#eeab7b"] ;
17 -> 19 ;
20 [label="gini = 0.0\nsamples = 3\nvalue = [3, 0]\nclass = San Francisco", fillcolor="#e58139"] ;
19 -> 20 ;
21 [label="gini = 0.0\nsamples = 1\nvalue = [0, 1]\nclass = New York", fillcolor="#399de5"] ;
19 -> 21 ;
22 [label="year_built <= 2009.5\ngini = 0.016\nsamples = 122\nvalue = [1, 121]\nclass = New York", fillcolor="#3b9ee5"] ;
16 -> 22 ;
23 [label="gini = 0.0\nsamples = 116\nvalue = [0, 116]\nclass = New York", fillcolor="#399de5"] ;
22 -> 23 ;
24 [label="elevation <= 39.0\ngini = 0.278\nsamples = 6\nvalue = [1, 5]\nclass = New York", fillcolor="#61b1ea"] ;
22 -> 24 ;
25 [label="gini = 0.0\nsamples = 1\nvalue = [1, 0]\nclass = San Francisco", fillcolor="#e58139"] ;
24 -> 25 ;
26 [label="gini = 0.0\nsamples = 5\nvalue = [0, 5]\nclass = New York", fillcolor="#399de5"] ;
24 -> 26 ;
}